<?xml version="1.0"?>
<opencv_storage>
<stage14>
  <maxWeakCount>34</maxWeakCount>
  <stageThreshold>-9.8967492580413818e-01</stageThreshold>
  <weakClassifiers>
    <_>
      <internalNodes>
        0 -1 3024 -1283727369 -549761537 -1212882945 -279049 -1090605057
        -36929 -36192513 -1074801153</internalNodes>
      <leafValues>
        -1.7135819792747498e-01 5.2234637737274170e-01</leafValues></_>
    <_>
      <internalNodes>
        0 -1 31224 1667646804 -638604615 943541213 -169664769
        -1689337857 -1392718876 -142823425 -36053265</internalNodes>
      <leafValues>
        -1.1694052815437317e-01 3.0853861570358276e-01</leafValues></_>
    <_>
      <internalNodes>
        0 -1 3072 1856961862 47096592 77616111 -1056018394 -374593571
        -1808195339 1640153022 1784524772</internalNodes>
      <leafValues>
        -2.0942017436027527e-01 1.5649461746215820e-01</leafValues></_>
    <_>
      <internalNodes>
        0 -1 3024 1283727368 575050858 1621167104 612780325 1518824256
        86278335 1960579584 1145049396</internalNodes>
      <leafValues>
        -6.3993597030639648e-01 3.2848555594682693e-02</leafValues></_>
    <_>
      <internalNodes>
        0 -1 3024 -1317281801 -570822657 -1078526017 -612646914
        -1073825873 -16810137 -1082675457 -1141899825</internalNodes>
      <leafValues>
        -3.0793799087405205e-03 6.1292129755020142e-01</leafValues></_>
    <_>
      <internalNodes>
        0 -1 25791 -1608936952 -1341591021 1872922172 1776375928
        -1676207460 1177198830 1891534196 1435292931</internalNodes>
      <leafValues>
        -2.9566466808319092e-01 8.8599309325218201e-02</leafValues></_>
    <_>
      <internalNodes>
        0 -1 2953 1213873296 1555874406 -1024676820 646342374 -575912728
        1747711664 50079748 256261572</internalNodes>
      <leafValues>
        -2.8198322653770447e-01 1.3402925431728363e-01</leafValues></_>
    <_>
      <internalNodes>
        0 -1 19857 -422541786 -859150069 -1988127962 546311646
        2048164230 1142174094 297603412 39257686</internalNodes>
      <leafValues>
        -3.1877297163009644e-01 1.0165712237358093e-01</leafValues></_>
    <_>
      <internalNodes>
        0 -1 29944 204468830 1929489990 -859169891 -1233916930 796337575
        127082216 1099123113 -2116035157</internalNodes>
      <leafValues>
        -1.2915068864822388e-01 2.4232767522335052e-01</leafValues></_>
    <_>
      <internalNodes>
        0 -1 28753 1927806713 -95254084 -1410920647 -1309899825
        -851143060 -1428267016 -469902854 -308089002</internalNodes>
      <leafValues>
        -1.2976494431495667e-01 2.6817116141319275e-01</leafValues></_>
    <_>
      <internalNodes>
        0 -1 26004 -2134299798 1289363958 431367328 369628608 487530312
        193552522 -1421745656 326514477</internalNodes>
      <leafValues>
        -2.7346557378768921e-01 1.3447757065296173e-01</leafValues></_>
    <_>
      <internalNodes>
        0 -1 12075 1984573216 170726587 298452168 1133538392 930432280
        1454406209 -534576080 6041638</internalNodes>
      <leafValues>
        -4.0089803934097290e-01 6.6906854510307312e-02</leafValues></_>
    <_>
      <internalNodes>
        0 -1 6231 -2090092169 -101908770 -420923907 1001678653
        1748970207 803902720 -108256609 -805310981</internalNodes>
      <leafValues>
        -8.4217503666877747e-02 3.7730914354324341e-01</leafValues></_>
    <_>
      <internalNodes>
        0 -1 25447 1988978384 1380885348 -2083124842 1230294382
        -841402374 1838776881 -589151830 1467140185</internalNodes>
      <leafValues>
        -2.2308014333248138e-01 1.5453836321830750e-01</leafValues></_>
    <_>
      <internalNodes>
        0 -1 15416 33965460 -444341992 -264057541 409745151 -509934568
        -2052356071 -710545057 1773939424</internalNodes>
      <leafValues>
        -2.3941403627395630e-01 1.5822428464889526e-01</leafValues></_>
    <_>
      <internalNodes>
        0 -1 17555 -869301612 -903771276 -509770643 81376377 -1876783598
        1469602003 440098112 -1702905346</internalNodes>
      <leafValues>
        -2.0024879276752472e-01 1.8172039091587067e-01</leafValues></_>
    <_>
      <internalNodes>
        0 -1 15374 -1031869714 132304858 -947654394 1902211345 848749446
        -1609357620 -823176418 254365204</internalNodes>
      <leafValues>
        -2.0388472080230713e-01 1.8242956697940826e-01</leafValues></_>
    <_>
      <internalNodes>
        0 -1 4 239217268 -855183890 -594713058 -1534409188 553671167
        -1849483225 -360273899 -467628300</internalNodes>
      <leafValues>
        -3.2099309563636780e-01 1.2010153383016586e-01</leafValues></_>
    <_>
      <internalNodes>
        0 -1 33104 576563360 -330489141 -1609352982 1662161383
        1296387618 759424417 1232408772 115443292</internalNodes>
      <leafValues>
        -3.1434500217437744e-01 1.2151109427213669e-01</leafValues></_>
    <_>
      <internalNodes>
        0 -1 31719 840620320 -957232459 -1887267176 -1874328988
        497803285 -718880195 -1717451442 1932975062</internalNodes>
      <leafValues>
        -2.5166046619415283e-01 1.5285037457942963e-01</leafValues></_>
    <_>
      <internalNodes>
        0 -1 29850 2112265203 -854279258 -328735944 -618154840
        1441256384 -2002682300 -1091262502 -1787840142</internalNodes>
      <leafValues>
        -1.3843524456024170e-01 2.8011846542358398e-01</leafValues></_>
    <_>
      <internalNodes>
        0 -1 12875 -401597494 -137133937 -709580631 668006474 839086548
        1347703815 1438737880 -1536167318</internalNodes>
      <leafValues>
        -2.2281384468078613e-01 1.7314009368419647e-01</leafValues></_>
    <_>
      <internalNodes>
        0 -1 18257 1457232936 912406894 1857924903 -1951477763
        -348304170 -1359577545 -54539205 -1789527937</internalNodes>
      <leafValues>
        -1.7274017632007599e-01 2.3144187033176422e-01</leafValues></_>
    <_>
      <internalNodes>
        0 -1 17171 -1693113382 953247879 -1630707399 -930822270
        -894145400 1328862543 1191434543 -1349669868</internalNodes>
      <leafValues>
        -1.9009453058242798e-01 2.1796520054340363e-01</leafValues></_>
    <_>
      <internalNodes>
        0 -1 22727 -688107126 177893226 -552696754 -220933552
        -1802665728 -1373045485 401265825 -586745332</internalNodes>
      <leafValues>
        -2.5031033158302307e-01 1.6050864756107330e-01</leafValues></_>
    <_>
      <internalNodes>
        0 -1 34449 2057127932 433246464 168860429 -909948175 -1958729233
        -662256758 -472380675 107766225</internalNodes>
      <leafValues>
        -2.1072031557559967e-01 1.9898778200149536e-01</leafValues></_>
    <_>
      <internalNodes>
        0 -1 25646 1767440672 852789558 54657851 -2067027512 -62418437
        385921323 1755462710 1644958953</internalNodes>
      <leafValues>
        -2.8246343135833740e-01 1.4212089776992798e-01</leafValues></_>
    <_>
      <internalNodes>
        0 -1 15451 -1005990556 1389639949 -678875475 -1534814756
        1256182019 -1724772894 -696587025 105430066</internalNodes>
      <leafValues>
        -2.2862015664577484e-01 1.8193925917148590e-01</leafValues></_>
    <_>
      <internalNodes>
        0 -1 3000 1317838849 -89521433 147376232 1858390088 145009808
        -1463170424 -1332839704 1075360699</internalNodes>
      <leafValues>
        -3.0739933252334595e-01 1.2559227645397186e-01</leafValues></_>
    <_>
      <internalNodes>
        0 -1 55 1655698922 -639311127 1835116043 1695293350 2028846713
        1072275319 2139006203 -617619805</internalNodes>
      <leafValues>
        -1.5968659520149231e-01 2.5977197289466858e-01</leafValues></_>
    <_>
      <internalNodes>
        0 -1 32131 -1096983256 978339373 1362116004 -1806059135
        1749305223 1235118107 -914334172 2649296</internalNodes>
      <leafValues>
        -3.6361068487167358e-01 1.1521335691213608e-01</leafValues></_>
    <_>
      <internalNodes>
        0 -1 4129 1427522178 -1423515870 -421197644 -1877691658
        1088313933 1117847737 587328039 1078276736</internalNodes>
      <leafValues>
        -3.1401360034942627e-01 1.4499111473560333e-01</leafValues></_>
    <_>
      <internalNodes>
        0 -1 28560 -164169733 -44306662 -1349535319 670150413
        -1912869202 -2035638498 804750591 -336228641</internalNodes>
      <leafValues>
        -1.1796767264604568e-01 3.9100795984268188e-01</leafValues></_>
    <_>
      <internalNodes>
        0 -1 242 589825930 -416902243 76546637 1065958138 -1718567047
        1337295366 -2097016659 25560728</internalNodes>
      <leafValues>
        -2.7400130033493042e-01 1.6072799265384674e-01</leafValues></_></weakClassifiers></stage14>
</opencv_storage>
