<?xml version="1.0"?>
<opencv_storage>
<stage4>
  <maxWeakCount>31</maxWeakCount>
  <stageThreshold>-1.0026148557662964e+00</stageThreshold>
  <weakClassifiers>
    <_>
      <internalNodes>
        0 -1 1 67538470 1246356641 -808524849 1274718374 1167559151
        -1181159341 -86508561 -529</internalNodes>
      <leafValues>
        -3.5894206166267395e-01 1.6749379038810730e-01</leafValues></_>
    <_>
      <internalNodes>
        0 -1 2969 1850535927 -333172961 -1568152964 -288079122 -55270403
        -21794899 1726800800 -543654917</internalNodes>
      <leafValues>
        -2.0881344377994537e-01 2.1363413333892822e-01</leafValues></_>
    <_>
      <internalNodes>
        0 -1 119 9961984 9362082 546308640 244320993 969380281
        -1389872612 199011182 1080298156</internalNodes>
      <leafValues>
        -3.8088139891624451e-01 9.8668158054351807e-02</leafValues></_>
    <_>
      <internalNodes>
        0 -1 31958 487653180 -2056225004 -1225855911 -1613967684
        -403328359 -31391807 -1519692035 -4212228</internalNodes>
      <leafValues>
        -9.8424412310123444e-02 3.1728109717369080e-01</leafValues></_>
    <_>
      <internalNodes>
        0 -1 15410 -67902731 1862974206 761981666 -1183027345 636770237
        -1091258565 -403375396 -1116947061</internalNodes>
      <leafValues>
        -1.7581374943256378e-01 2.4128061532974243e-01</leafValues></_>
    <_>
      <internalNodes>
        0 -1 12752 -956331498 403714106 -963489759 -1004101880
        1200030868 262689360 945233936 1160983585</internalNodes>
      <leafValues>
        -2.6568621397018433e-01 1.4500260353088379e-01</leafValues></_>
    <_>
      <internalNodes>
        0 -1 2272 1645971827 -1648285702 -116981793 -206397551
        1546852257 -1178700299 -939696186 -338430845</internalNodes>
      <leafValues>
        -1.2341652810573578e-01 3.1692284345626831e-01</leafValues></_>
    <_>
      <internalNodes>
        0 -1 30062 1587870552 1411023622 18163914 906013882 1715974160
        374680048 1076449360 8766819</internalNodes>
      <leafValues>
        -3.3681538701057434e-01 1.1153383553028107e-01</leafValues></_>
    <_>
      <internalNodes>
        0 -1 3001 -1033584542 -1565902001 1279420522 2900092 -914348748
        733841324 -329771148 1116471856</internalNodes>
      <leafValues>
        -4.5909211039543152e-01 9.1899275779724121e-02</leafValues></_>
    <_>
      <internalNodes>
        0 -1 16987 -815663326 587555110 3347023 2010948170 732988045
        955124620 610155452 7561671</internalNodes>
      <leafValues>
        -2.2038847208023071e-01 1.6888292133808136e-01</leafValues></_>
    <_>
      <internalNodes>
        0 -1 27820 -1655585483 -776982559 -306774027 1843983506
        1728837940 -412025281 -791136103 -822697821</internalNodes>
      <leafValues>
        -1.6143426299095154e-01 2.4716736376285553e-01</leafValues></_>
    <_>
      <internalNodes>
        0 -1 8434 72591908 457150730 210829936 1720099776 1109164786
        -1642477319 564215700 4431972</internalNodes>
      <leafValues>
        -3.2762178778648376e-01 1.2476576119661331e-01</leafValues></_>
    <_>
      <internalNodes>
        0 -1 26816 -882736449 1395842685 -939605748 869869472 2055013591
        1272419878 963638158 1460454459</internalNodes>
      <leafValues>
        -1.7847210168838501e-01 2.1817220747470856e-01</leafValues></_>
    <_>
      <internalNodes>
        0 -1 18899 -319708926 35946583 -745666375 362043922 2011230722
        728465475 1747092356 358036253</internalNodes>
      <leafValues>
        -3.1184187531471252e-01 1.1656010895967484e-01</leafValues></_>
    <_>
      <internalNodes>
        0 -1 15006 531161067 -247590957 -344572032 1009657469 183460765
        72799329 2094385961 -486742521</internalNodes>
      <leafValues>
        -1.6117660701274872e-01 2.4473358690738678e-01</leafValues></_>
    <_>
      <internalNodes>
        0 -1 34109 -526163228 953763042 1080018033 -1433742382
        -2137942270 -1415268094 962291918 59077284</internalNodes>
      <leafValues>
        -2.7212622761726379e-01 1.4532531797885895e-01</leafValues></_>
    <_>
      <internalNodes>
        0 -1 34578 2015693312 169111106 -921213398 -468423677
        -2144382444 -120358644 322638096 1108874200</internalNodes>
      <leafValues>
        -3.8899987936019897e-01 1.1372759193181992e-01</leafValues></_>
    <_>
      <internalNodes>
        0 -1 31959 -296963 2145419184 -536985601 -101318796 -277483784
        -1258653297 -2014262293 -143939</internalNodes>
      <leafValues>
        -1.0285832732915878e-01 4.5281627774238586e-01</leafValues></_>
    <_>
      <internalNodes>
        0 -1 602 -1012873159 -320557636 -822425362 -1650282890 -16975850
        -571248673 -323567621 -110378633</internalNodes>
      <leafValues>
        -1.5505665540695190e-01 2.8147879242897034e-01</leafValues></_>
    <_>
      <internalNodes>
        0 -1 21432 -113969613 1617660575 -1614846025 -8622296
        -1663674999 1163111231 -46563621 238653553</internalNodes>
      <leafValues>
        -1.8112675845623016e-01 2.3675815761089325e-01</leafValues></_>
    <_>
      <internalNodes>
        0 -1 22258 -1586836591 1245638396 556646371 1374916195
        -1921932915 -1704663170 1730667728 -1938106644</internalNodes>
      <leafValues>
        -1.8982307612895966e-01 2.2447134554386139e-01</leafValues></_>
    <_>
      <internalNodes>
        0 -1 13202 -939021494 1038297686 -805471172 -1750335539
        -1846339074 1234890621 251208333 -1015029074</internalNodes>
      <leafValues>
        -1.4529533684253693e-01 2.8380072116851807e-01</leafValues></_>
    <_>
      <internalNodes>
        0 -1 27457 -4220883 2058792623 498035971 -238404116 -589182615
        -1616709769 -1635902193 -538074493</internalNodes>
      <leafValues>
        -1.4785809814929962e-01 3.0435210466384888e-01</leafValues></_>
    <_>
      <internalNodes>
        0 -1 17403 -413147747 1427537459 -1343228294 -505046973
        -156982187 -1648509629 1020584808 -873468825</internalNodes>
      <leafValues>
        -1.4443448185920715e-01 2.9452598094940186e-01</leafValues></_>
    <_>
      <internalNodes>
        0 -1 17328 273558348 697036674 1125299106 135495772 1927342305
        -1339233788 1483484716 1436112341</internalNodes>
      <leafValues>
        -3.0139333009719849e-01 1.4730864763259888e-01</leafValues></_>
    <_>
      <internalNodes>
        0 -1 9752 -26325765 2062328809 788258749 -676387677 2110016959
        -1447567788 -294878483 -848036819</internalNodes>
      <leafValues>
        -1.4400492608547211e-01 3.1130516529083252e-01</leafValues></_>
    <_>
      <internalNodes>
        0 -1 31202 614088820 -1941286883 -408758432 -896361479
        -434454959 -1875842859 2017233287 409609109</internalNodes>
      <leafValues>
        -2.9341351985931396e-01 1.4962978661060333e-01</leafValues></_>
    <_>
      <internalNodes>
        0 -1 22648 1523525892 1241692764 881242490 587381324 1905376007
        -1066734762 -999320320 -2044533930</internalNodes>
      <leafValues>
        -2.8824326395988464e-01 1.5838901698589325e-01</leafValues></_>
    <_>
      <internalNodes>
        0 -1 27392 -147085617 854897789 528133086 798437075 -1308814101
        -232128676 1240986872 -112075589</internalNodes>
      <leafValues>
        -1.4684733748435974e-01 3.1167149543762207e-01</leafValues></_>
    <_>
      <internalNodes>
        0 -1 15418 1150425204 -1440971904 1427633125 2105725459
        840126949 272847021 738961461 177734000</internalNodes>
      <leafValues>
        -3.3255654573440552e-01 1.3953277468681335e-01</leafValues></_>
    <_>
      <internalNodes>
        0 -1 17214 -1909528624 -144562697 2048134628 61390972 2064795817
        701547597 1653795922 1578970338</internalNodes>
      <leafValues>
        -2.6091036200523376e-01 1.7282143235206604e-01</leafValues></_></weakClassifiers></stage4>
</opencv_storage>
