<?xml version="1.0"?>
<opencv_storage>
<stage13>
  <maxWeakCount>38</maxWeakCount>
  <stageThreshold>-1.0059522390365601e+00</stageThreshold>
  <weakClassifiers>
    <_>
      <internalNodes>
        0 -1 31960 -144476673 -4589061 -1074826241 -1179661 -262945
        -1430343749 -538976577 -612370945</internalNodes>
      <leafValues>
        -1.6916488111019135e-01 4.3718594312667847e-01</leafValues></_>
    <_>
      <internalNodes>
        0 -1 5656 -1799367179 -42207265 -1248895053 -134750309
        -948506757 -639763226 -648262689 -1048866</internalNodes>
      <leafValues>
        -9.1690346598625183e-02 3.9515197277069092e-01</leafValues></_>
    <_>
      <internalNodes>
        0 -1 34573 1450984224 -1324864555 1087043380 -2042621640
        568433440 -663873375 1338097664 -1538991072</internalNodes>
      <leafValues>
        -3.2799625396728516e-01 8.9706949889659882e-02</leafValues></_>
    <_>
      <internalNodes>
        0 -1 2001 356317627 -2065138233 -1083727 390327248 1398600885
        655154000 -974112155 -1393254889</internalNodes>
      <leafValues>
        -1.6408094763755798e-01 1.8684035539627075e-01</leafValues></_>
    <_>
      <internalNodes>
        0 -1 33837 -1226388077 955265500 -555583691 1553265561
        1056552194 -296362020 1252127454 1595356910</internalNodes>
      <leafValues>
        -1.1768609285354614e-01 2.4859911203384399e-01</leafValues></_>
    <_>
      <internalNodes>
        0 -1 16860 270219788 -2122161962 376547132 599925069 326582720
        -1517694191 1929465923 248957293</internalNodes>
      <leafValues>
        -2.8862291574478149e-01 8.8243030011653900e-02</leafValues></_>
    <_>
      <internalNodes>
        0 -1 6511 1932215062 1800879767 1885943653 543239658 541709613
        -1345556025 1466941002 1869528136</internalNodes>
      <leafValues>
        -1.5742003917694092e-01 2.0411247014999390e-01</leafValues></_>
    <_>
      <internalNodes>
        0 -1 17972 -945942442 -2078248635 1162393084 -1500990246
        -594335095 -1016688183 -1066675350 1296733466</internalNodes>
      <leafValues>
        -2.2817693650722504e-01 1.4741863310337067e-01</leafValues></_>
    <_>
      <internalNodes>
        0 -1 21926 956294057 -711948889 1911387899 896219311 -76199618
        1603671926 1307607134 -223010351</internalNodes>
      <leafValues>
        -1.5912824869155884e-01 2.3089465498924255e-01</leafValues></_>
    <_>
      <internalNodes>
        0 -1 17666 1911572445 -1829339882 1035843132 -1231393617
        1050461546 -729776154 -1355009896 -1300709528</internalNodes>
      <leafValues>
        -1.6891340911388397e-01 2.1552053093910217e-01</leafValues></_>
    <_>
      <internalNodes>
        0 -1 4782 -1237260524 312545175 -787074251 458789258 -759451531
        1195265328 1475208544 1506046901</internalNodes>
      <leafValues>
        -2.6222515106201172e-01 1.2454451620578766e-01</leafValues></_>
    <_>
      <internalNodes>
        0 -1 34346 -704575728 1645942884 -1001811704 663134413
        1660658176 -1694129693 -534111680 1920262130</internalNodes>
      <leafValues>
        -2.7015912532806396e-01 1.4206020534038544e-01</leafValues></_>
    <_>
      <internalNodes>
        0 -1 20278 2020513727 -646058460 -339794665 -130681214
        -1536043277 -60473579 -67927173 -1350572637</internalNodes>
      <leafValues>
        -1.3499842584133148e-01 3.1066462397575378e-01</leafValues></_>
    <_>
      <internalNodes>
        0 -1 2587 626532610 1316152026 -1718234510 642482843 1879183840
        1954908016 -1568398302 1692082355</internalNodes>
      <leafValues>
        -3.0709663033485413e-01 1.3451962172985077e-01</leafValues></_>
    <_>
      <internalNodes>
        0 -1 28488 -489164202 -736064610 1083755732 -308946432
        -1941338471 879653777 1567720321 -787571158</internalNodes>
      <leafValues>
        -1.8753002583980560e-01 1.9808784127235413e-01</leafValues></_>
    <_>
      <internalNodes>
        0 -1 20984 -396644199 979485800 1660220585 929756177 393940669
        -854179861 -442073638 1500786111</internalNodes>
      <leafValues>
        -1.6611014306545258e-01 2.2369520366191864e-01</leafValues></_>
    <_>
      <internalNodes>
        0 -1 4663 1038890127 -1304382363 1910520109 -720724361
        1742878102 1666164478 -1222382949 -674300360</internalNodes>
      <leafValues>
        -1.5253268182277679e-01 2.3860493302345276e-01</leafValues></_>
    <_>
      <internalNodes>
        0 -1 20986 -645988997 -583644873 -71746178 -1043614000
        -464945480 -453869596 608138509 -77595690</internalNodes>
      <leafValues>
        -1.3213537633419037e-01 3.0078727006912231e-01</leafValues></_>
    <_>
      <internalNodes>
        0 -1 27367 -961597052 -1336817721 -1381019772 1274281731
        -993978866 -481329312 1360427515 -522740476</internalNodes>
      <leafValues>
        -1.9022175669670105e-01 2.0164409279823303e-01</leafValues></_>
    <_>
      <internalNodes>
        0 -1 12142 -240581153 2139074483 -554218515 -183253027
        -1077960579 -655484185 1123776499 -538540389</internalNodes>
      <leafValues>
        -9.9605455994606018e-02 3.7225094437599182e-01</leafValues></_>
    <_>
      <internalNodes>
        0 -1 21230 1933551918 9912744 1594909102 508608732 722673713
        471373881 525351125 1622797998</internalNodes>
      <leafValues>
        -3.0115073919296265e-01 1.2215869128704071e-01</leafValues></_>
    <_>
      <internalNodes>
        0 -1 21146 -697865731 1932831417 346987315 946237247 -1334401747
        -1763891253 -806607749 -146183642</internalNodes>
      <leafValues>
        -1.3816773891448975e-01 2.6832634210586548e-01</leafValues></_>
    <_>
      <internalNodes>
        0 -1 23328 -765749693 1403681913 109012033 2032769843 1655458499
        -16973889 83322494 347510237</internalNodes>
      <leafValues>
        -1.8034900724887848e-01 2.1184161305427551e-01</leafValues></_>
    <_>
      <internalNodes>
        0 -1 12023 1857770686 879492252 1874919112 51354195 -1796925969
        -831722758 -1622193737 -1040263393</internalNodes>
      <leafValues>
        -1.7115750908851624e-01 2.3306573927402496e-01</leafValues></_>
    <_>
      <internalNodes>
        0 -1 23470 -966675459 1031044981 -386155874 -559366169
        -905816208 -661839991 -319018331 -336095522</internalNodes>
      <leafValues>
        -1.3893237709999084e-01 2.8227609395980835e-01</leafValues></_>
    <_>
      <internalNodes>
        0 -1 588 219496452 1122556225 -1618767706 -2038670069 -666710745
        1414768771 1380191248 1975812924</internalNodes>
      <leafValues>
        -4.1604632139205933e-01 9.2635154724121094e-02</leafValues></_>
    <_>
      <internalNodes>
        0 -1 18882 464695504 -2016354224 -173045485 160310376 391381984
        332022594 35392132 78139524</internalNodes>
      <leafValues>
        -3.7300297617912292e-01 1.0564595460891724e-01</leafValues></_>
    <_>
      <internalNodes>
        0 -1 26937 744494212 -616286785 160699805 779808177 601510457
        -888940538 -2088607059 -1207191220</internalNodes>
      <leafValues>
        -2.2835429012775421e-01 1.7769163846969604e-01</leafValues></_>
    <_>
      <internalNodes>
        0 -1 25783 1663560127 1900383071 -18307275 -505864775 -363559429
        -1212597394 2125563135 -11539845</internalNodes>
      <leafValues>
        -9.3888990581035614e-02 4.1192233562469482e-01</leafValues></_>
    <_>
      <internalNodes>
        0 -1 2890 -2101852160 139092478 1078466684 -387789684 564158504
        -1230047144 -262397903 1886944608</internalNodes>
      <leafValues>
        -4.4819161295890808e-01 9.3224644660949707e-02</leafValues></_>
    <_>
      <internalNodes>
        0 -1 25119 1249822752 53031508 563180630 893389170 1016057134
        1374323479 142635684 1308639332</internalNodes>
      <leafValues>
        -3.2618361711502075e-01 1.2392934411764145e-01</leafValues></_>
    <_>
      <internalNodes>
        0 -1 20621 -94185001 1467476758 -285796111 -873716073
        -1479047237 -170952897 2000584168 -476605575</internalNodes>
      <leafValues>
        -1.3300752639770508e-01 3.1297293305397034e-01</leafValues></_>
    <_>
      <internalNodes>
        0 -1 23058 -914220286 17961313 2039590188 -1588481176 1516613120
        1892745283 874447808 -936237979</internalNodes>
      <leafValues>
        -2.7741411328315735e-01 1.5564349293708801e-01</leafValues></_>
    <_>
      <internalNodes>
        0 -1 28968 610861152 1541096976 31193341 -1806102094 1014590350
        -1313749938 -1080342375 184416261</internalNodes>
      <leafValues>
        -2.2489382326602936e-01 1.8454793095588684e-01</leafValues></_>
    <_>
      <internalNodes>
        0 -1 32735 307371418 -1921280353 1090532164 1536957395
        1916344994 1224917034 1255359496 -1560970608</internalNodes>
      <leafValues>
        -2.5658139586448669e-01 1.6727802157402039e-01</leafValues></_>
    <_>
      <internalNodes>
        0 -1 22012 1421285119 -794298414 1828387163 -975969852
        -1992572464 1042280925 1647757305 -1409720605</internalNodes>
      <leafValues>
        -1.4339716732501984e-01 3.1519594788551331e-01</leafValues></_>
    <_>
      <internalNodes>
        0 -1 15866 -1352640819 1429742377 1740308447 -10935507
        1115414452 -424419594 -421446959 -87036823</internalNodes>
      <leafValues>
        -1.3824586570262909e-01 3.0668818950653076e-01</leafValues></_>
    <_>
      <internalNodes>
        0 -1 24797 385355272 -454612714 1301461970 710947764 1434933852
        22136844 1259344415 79779386</internalNodes>
      <leafValues>
        -3.4181600809097290e-01 1.3052643835544586e-01</leafValues></_></weakClassifiers></stage13>
</opencv_storage>
