<?xml version="1.0"?>
<opencv_storage>
<stage1>
  <maxWeakCount>32</maxWeakCount>
  <stageThreshold>-9.4467455148696899e-01</stageThreshold>
  <weakClassifiers>
    <_>
      <internalNodes>
        0 -1 34588 -109577836 -1151447614 -2117731843 -3350825
        -906650251 -291125849 -575013100 -279053884</internalNodes>
      <leafValues>
        -2.8783550858497620e-01 1.4078675210475922e-01</leafValues></_>
    <_>
      <internalNodes>
        0 -1 34278 -698759899 391895093 -1211630900 -622398707
        1793732930 -129858524 -359790560 1718075259</internalNodes>
      <leafValues>
        -2.0805023610591888e-01 1.8549112975597382e-01</leafValues></_>
    <_>
      <internalNodes>
        0 -1 5634 -335937 -537135201 -304131181 -35684401 -1627623427
        -396307 -67328065 -4395029</internalNodes>
      <leafValues>
        -7.7569916844367981e-02 5.0204521417617798e-01</leafValues></_>
    <_>
      <internalNodes>
        0 -1 18502 -47188089 311371568 -420495622 -1837698120 1423948179
        -706611569 -203504462 -511720457</internalNodes>
      <leafValues>
        -1.6373619437217712e-01 2.5414496660232544e-01</leafValues></_>
    <_>
      <internalNodes>
        0 -1 246 806666245 -9179393 806796995 1469182871 -1232864278
        541880118 -1016404337 1162463115</internalNodes>
      <leafValues>
        -1.6477490961551666e-01 2.3878289759159088e-01</leafValues></_>
    <_>
      <internalNodes>
        0 -1 29933 1026148838 101302534 -61939664 -1597576866 1103586309
        121303103 1892115270 67472766</internalNodes>
      <leafValues>
        -4.2632666230201721e-01 8.7623141705989838e-02</leafValues></_>
    <_>
      <internalNodes>
        0 -1 24833 2130346468 459976676 -106499378 667285106 351077349
        1900213653 1881086670 613908082</internalNodes>
      <leafValues>
        -1.9678197801113129e-01 2.0673798024654388e-01</leafValues></_>
    <_>
      <internalNodes>
        0 -1 29751 -34048611 -779497654 2080163586 1941045043
        -2050029175 80472038 813541867 -1010829990</internalNodes>
      <leafValues>
        -1.4894925057888031e-01 2.8611835837364197e-01</leafValues></_>
    <_>
      <internalNodes>
        0 -1 606 134748472 907035588 -2093932292 740301840 1108580789
        820684592 2000820345 1049664</internalNodes>
      <leafValues>
        -5.4653877019882202e-01 5.9244349598884583e-02</leafValues></_>
    <_>
      <internalNodes>
        0 -1 27146 -582769056 -1771081462 -1069476653 -1181481757
        -1694115092 402844168 51238395 1079943174</internalNodes>
      <leafValues>
        -2.1208719909191132e-01 1.9854699075222015e-01</leafValues></_>
    <_>
      <internalNodes>
        0 -1 24480 -17887220 304465990 1052307648 -226834980 2040516868
        657977457 310060180 827945839</internalNodes>
      <leafValues>
        -2.8310534358024597e-01 1.4955739676952362e-01</leafValues></_>
    <_>
      <internalNodes>
        0 -1 1641 -404851582 -1658599669 -788195007 659249192
        -1148637389 42594848 1358065968 23544344</internalNodes>
      <leafValues>
        -2.8588572144508362e-01 1.4133951067924500e-01</leafValues></_>
    <_>
      <internalNodes>
        0 -1 20383 -301475917 -231113894 -1074796374 -1712603978
        -1675398776 -581537921 -4725813 -645949441</internalNodes>
      <leafValues>
        -1.1470238119363785e-01 3.5559934377670288e-01</leafValues></_>
    <_>
      <internalNodes>
        0 -1 14119 1074278650 -644824424 -1844050171 223305854 835465870
        -1975074610 1803926785 1348981819</internalNodes>
      <leafValues>
        -2.0596940815448761e-01 2.0460259914398193e-01</leafValues></_>
    <_>
      <internalNodes>
        0 -1 32733 1458226208 635401956 1614893152 1910391714 1451366748
        -1237681614 -1730258432 342239914</internalNodes>
      <leafValues>
        -3.2767593860626221e-01 1.2017502635717392e-01</leafValues></_>
    <_>
      <internalNodes>
        0 -1 20424 -254037678 -1056594521 -1777962848 1024688138
        -608522804 -561428415 85585276 1137634218</internalNodes>
      <leafValues>
        -2.0227266848087311e-01 2.1462698280811310e-01</leafValues></_>
    <_>
      <internalNodes>
        0 -1 33839 -220535875 -305259096 -307242633 -1020695043 96378741
        1656681556 -511845128 -9320580</internalNodes>
      <leafValues>
        -1.7240534722805023e-01 2.5427931547164917e-01</leafValues></_>
    <_>
      <internalNodes>
        0 -1 9351 1776614389 -1518981316 -677397921 -718681256 599311853
        -294913443 -646941528 -838931170</internalNodes>
      <leafValues>
        -1.4923709630966187e-01 2.9492533206939697e-01</leafValues></_>
    <_>
      <internalNodes>
        0 -1 15308 680274208 172405210 -609343424 740852363 55448084
        315381830 64815924 594838129</internalNodes>
      <leafValues>
        -5.1015788316726685e-01 1.0095551609992981e-01</leafValues></_>
    <_>
      <internalNodes>
        0 -1 34216 -725333712 -1127233090 -524635592 -1323749473
        -925195772 1885114226 -190809559 901752738</internalNodes>
      <leafValues>
        -2.8155860304832458e-01 1.5744338929653168e-01</leafValues></_>
    <_>
      <internalNodes>
        0 -1 5283 1711222059 1885937473 180235992 -1180960021 1690159005
        -2031218723 1711207732 -1101600075</internalNodes>
      <leafValues>
        -1.8699924647808075e-01 2.5064978003501892e-01</leafValues></_>
    <_>
      <internalNodes>
        0 -1 21240 1547602218 1624300801 -2058186704 -884976541
        172115904 4982787 1374708353 1684230430</internalNodes>
      <leafValues>
        -2.9794457554817200e-01 1.5903648734092712e-01</leafValues></_>
    <_>
      <internalNodes>
        0 -1 23454 1283629060 136620125 767590674 530838728 100938980
        -796521872 408130332 1652662391</internalNodes>
      <leafValues>
        -3.0663901567459106e-01 1.4881862699985504e-01</leafValues></_>
    <_>
      <internalNodes>
        0 -1 5815 -1584307295 -80424636 826848561 1761925581 177404
        290343680 1001067070 1752275908</internalNodes>
      <leafValues>
        -2.3036597669124603e-01 2.0387867093086243e-01</leafValues></_>
    <_>
      <internalNodes>
        0 -1 22267 -399499943 1044285885 1577024827 -1443691257
        756488355 -1075333196 678907402 -365044462</internalNodes>
      <leafValues>
        -1.8264468014240265e-01 2.5393450260162354e-01</leafValues></_>
    <_>
      <internalNodes>
        0 -1 22945 -706259786 1763860388 754050866 435757618 -436957995
        431778049 -1025476833 -919884826</internalNodes>
      <leafValues>
        -1.9753928482532501e-01 2.3760879039764404e-01</leafValues></_>
    <_>
      <internalNodes>
        0 -1 29675 1737237402 -1411209397 413822528 -2105381648
        1503071312 1085130721 -1172957567 1079191828</internalNodes>
      <leafValues>
        -3.6535763740539551e-01 1.3865301012992859e-01</leafValues></_>
    <_>
      <internalNodes>
        0 -1 14429 -820296897 -1693561553 -106102929 956246564 741469386
        -621094233 -450468032 1360392594</internalNodes>
      <leafValues>
        -2.0245870947837830e-01 2.3218432068824768e-01</leafValues></_>
    <_>
      <internalNodes>
        0 -1 31155 -623940415 693881649 -408175121 2108666584 706110710
        -1614522523 -1670537230 -17089130</internalNodes>
      <leafValues>
        -1.6233038902282715e-01 3.0064558982849121e-01</leafValues></_>
    <_>
      <internalNodes>
        0 -1 21512 1341832117 238734456 -1913499435 -1652917561
        240149169 -697319852 -1227184660 1595104321</internalNodes>
      <leafValues>
        -2.0146758854389191e-01 2.2626429796218872e-01</leafValues></_>
    <_>
      <internalNodes>
        0 -1 28322 -2006225148 1015314958 -355155928 -521949102
        1880646220 826829588 1303981264 -185074908</internalNodes>
      <leafValues>
        -2.9981338977813721e-01 1.6638655960559845e-01</leafValues></_>
    <_>
      <internalNodes>
        0 -1 6649 2121321364 997567104 343021312 594206798 1387952314
        -678903139 -525626575 1635297465</internalNodes>
      <leafValues>
        -2.5070437788963318e-01 1.8791629374027252e-01</leafValues></_></weakClassifiers></stage1>
</opencv_storage>
