<?xml version="1.0"?>
<opencv_storage>
<stage0>
  <maxWeakCount>28</maxWeakCount>
  <stageThreshold>-9.0746414661407471e-01</stageThreshold>
  <weakClassifiers>
    <_>
      <internalNodes>
        0 -1 34232 -224437227 -148539421 -268836960 -545794602
        -650142959 -36588369 1576287808 -3416065</internalNodes>
      <leafValues>
        -2.9039016366004944e-01 1.9721038639545441e-01</leafValues></_>
    <_>
      <internalNodes>
        0 -1 447 -647642992 -550243421 -1364589327 1966992178 -993619489
        -1469192728 8189259 -2025488288</internalNodes>
      <leafValues>
        -1.7791272699832916e-01 2.5740444660186768e-01</leafValues></_>
    <_>
      <internalNodes>
        0 -1 10897 -50724873 -11635329 -151140673 -638263371 -571670596
        -4428162 -688808211 -7537666</internalNodes>
      <leafValues>
        -1.0707749426364899e-01 4.2202070355415344e-01</leafValues></_>
    <_>
      <internalNodes>
        0 -1 9263 1966049284 1919254632 8466945 1091244205 297297290
        1384386594 919950091 1079755566</internalNodes>
      <leafValues>
        -2.6522365212440491e-01 1.6403208673000336e-01</leafValues></_>
    <_>
      <internalNodes>
        0 -1 23858 -692393320 1536717249 1884803072 -204654504 217940126
        1797931272 -630775400 1097058890</internalNodes>
      <leafValues>
        -2.0448926091194153e-01 2.0206950604915619e-01</leafValues></_>
    <_>
      <internalNodes>
        0 -1 19377 -276868817 678145423 -319572376 -25300230 1472666733
        -884526537 1521762694 -44570753</internalNodes>
      <leafValues>
        -1.5878678858280182e-01 2.5320243835449219e-01</leafValues></_>
    <_>
      <internalNodes>
        0 -1 33462 -1750051843 1855225821 -362939403 -542613860
        -294002876 -722948 -813379979 -134355848</internalNodes>
      <leafValues>
        -1.8631321191787720e-01 2.3191757500171661e-01</leafValues></_>
    <_>
      <internalNodes>
        0 -1 24625 1609853282 -2080033367 -1521778112 167822054
        -546241216 816556742 -1059109116 1713922426</internalNodes>
      <leafValues>
        -3.8008800148963928e-01 1.3436788320541382e-01</leafValues></_>
    <_>
      <internalNodes>
        0 -1 18515 -91896166 386377873 1706944840 -209614874 1657883578
        1380008865 -219042364 1157612171</internalNodes>
      <leafValues>
        -2.3255829513072968e-01 1.8451961874961853e-01</leafValues></_>
    <_>
      <internalNodes>
        0 -1 24385 -632364480 335797068 2045219369 2063722870 1639330972
        -1292743843 1610886200 1764912207</internalNodes>
      <leafValues>
        -2.2509407997131348e-01 1.8874089419841766e-01</leafValues></_>
    <_>
      <internalNodes>
        0 -1 8677 1483839897 -677382297 1701879187 -81546949 -637603603
        -61878527 -1275306849 -313547842</internalNodes>
      <leafValues>
        -1.0873480886220932e-01 3.7998384237289429e-01</leafValues></_>
    <_>
      <internalNodes>
        0 -1 15074 1770956578 1657103014 1288063335 2122378390
        1582655237 1288315200 1091285252 1636277904</internalNodes>
      <leafValues>
        -3.3575096726417542e-01 1.3100443780422211e-01</leafValues></_>
    <_>
      <internalNodes>
        0 -1 22391 -196754030 1433681214 955660610 -1075677022 784780987
        1266406726 -1677007620 -1474042270</internalNodes>
      <leafValues>
        -1.8287782371044159e-01 2.4114528298377991e-01</leafValues></_>
    <_>
      <internalNodes>
        0 -1 13346 1727069740 -525287287 -1547146200 -228249806
        1136818088 1203347792 181426672 24184116</internalNodes>
      <leafValues>
        -3.2025223970413208e-01 1.3425356149673462e-01</leafValues></_>
    <_>
      <internalNodes>
        0 -1 2992 1284115689 -1403126545 -514267074 1209280656 265273228
        -1549856598 -1119806532 706780084</internalNodes>
      <leafValues>
        -2.8307139873504639e-01 1.6322562098503113e-01</leafValues></_>
    <_>
      <internalNodes>
        0 -1 13709 -675286179 -137965914 -1812764904 -779755294
        -1292705605 -1675631196 -151050839 -181565724</internalNodes>
      <leafValues>
        -1.3688948750495911e-01 3.3346518874168396e-01</leafValues></_>
    <_>
      <internalNodes>
        0 -1 27535 -133470437 1624890395 -206389916 1391850904
        -319500354 760772471 -17406166 1935928923</internalNodes>
      <leafValues>
        -1.8515409529209137e-01 2.5102314352989197e-01</leafValues></_>
    <_>
      <internalNodes>
        0 -1 2447 541066724 847861744 218195072 1192363396 210378184
        26741452 -757308912 1193630558</internalNodes>
      <leafValues>
        -3.8024774193763733e-01 1.2169325351715088e-01</leafValues></_>
    <_>
      <internalNodes>
        0 -1 34385 -256174475 2002679699 -1158711662 493803313
        -1777010282 -38429068 196980364 -285479266</internalNodes>
      <leafValues>
        -1.5203100442886353e-01 3.0005568265914917e-01</leafValues></_>
    <_>
      <internalNodes>
        0 -1 6924 -188579598 1260655204 458383169 2030428624 -1428501852
        -1073673838 1451370249 616809116</internalNodes>
      <leafValues>
        -2.5379905104637146e-01 1.8372878432273865e-01</leafValues></_>
    <_>
      <internalNodes>
        0 -1 3925 -1634931741 1488645352 712637779 -614470487 1122590150
        -415246012 1261438412 -1252069642</internalNodes>
      <leafValues>
        -1.5755611658096313e-01 2.8398618102073669e-01</leafValues></_>
    <_>
      <internalNodes>
        0 -1 34582 -1231264752 -1562837096 2040980896 577208460
        2075463729 -1986362379 1043988000 1042548857</internalNodes>
      <leafValues>
        -3.9285653829574585e-01 1.1406877636909485e-01</leafValues></_>
    <_>
      <internalNodes>
        0 -1 4671 -122930998 1937522955 -1055837084 25507298 -179819916
        1293953738 -2126117445 330753421</internalNodes>
      <leafValues>
        -2.6437509059906006e-01 1.8471774458885193e-01</leafValues></_>
    <_>
      <internalNodes>
        0 -1 21321 2027671462 -1792872296 654571234 549601436 312129103
        162072761 -1450055549 894236633</internalNodes>
      <leafValues>
        -2.9536262154579163e-01 1.6796894371509552e-01</leafValues></_>
    <_>
      <internalNodes>
        0 -1 23557 1085843236 1394661463 -221609326 1775599809
        -1558191482 982686569 -1618452994 1189940626</internalNodes>
      <leafValues>
        -2.3797769844532013e-01 2.0177721977233887e-01</leafValues></_>
    <_>
      <internalNodes>
        0 -1 8240 -1812625852 -1571552139 618322627 -396457636
        2109728413 -243979738 -1934219844 2028753292</internalNodes>
      <leafValues>
        -2.6375496387481689e-01 1.8808728456497192e-01</leafValues></_>
    <_>
      <internalNodes>
        0 -1 14886 -952513862 -1357427951 2070326663 552201972
        -2064316467 1073378569 -1809293583 -1030098353</internalNodes>
      <leafValues>
        -1.8959771096706390e-01 2.5021278858184814e-01</leafValues></_>
    <_>
      <internalNodes>
        0 -1 24808 1751994885 -1436523255 30193030 -124188677
        -1857212539 1276053668 -558303100 1678675498</internalNodes>
      <leafValues>
        -2.7777916193008423e-01 1.6932581365108490e-01</leafValues></_></weakClassifiers></stage0>
</opencv_storage>
