<?xml version="1.0"?>
<opencv_storage>
<stage5>
  <maxWeakCount>36</maxWeakCount>
  <stageThreshold>-9.4980579614639282e-01</stageThreshold>
  <weakClassifiers>
    <_>
      <internalNodes>
        0 -1 3007 1406652918 1580733200 319822290 -15201986 -1441748820
        -662206254 -1406363138 -320697452</internalNodes>
      <leafValues>
        -2.6165229082107544e-01 1.9658848643302917e-01</leafValues></_>
    <_>
      <internalNodes>
        0 -1 2 113807202 113430106 -1701665619 -1908633402 -772278274
        -809308387 -810503347 -1426351043</internalNodes>
      <leafValues>
        -2.5640040636062622e-01 1.4975202083587646e-01</leafValues></_>
    <_>
      <internalNodes>
        0 -1 2866 -453644901 -1078723777 -285429761 -353450266
        -1359311131 -642263379 -184710017 -4205577</internalNodes>
      <leafValues>
        -1.1321117728948593e-01 3.0883002281188965e-01</leafValues></_>
    <_>
      <internalNodes>
        0 -1 8266 -1849625812 -1084824291 -1136621166 -141020913
        283484981 2097417346 1721653948 -273933618</internalNodes>
      <leafValues>
        -2.0572748780250549e-01 1.6890019178390503e-01</leafValues></_>
    <_>
      <internalNodes>
        0 -1 29756 1086376840 279338325 -167876454 1648791258 2070296704
        609058021 603271055 1315150983</internalNodes>
      <leafValues>
        -1.5082933008670807e-01 2.2768093645572662e-01</leafValues></_>
    <_>
      <internalNodes>
        0 -1 28206 1491597791 1448568764 -969968225 1237823077
        -1239610291 2016176037 -583819794 -744099701</internalNodes>
      <leafValues>
        -1.8145832419395447e-01 2.3098972439765930e-01</leafValues></_>
    <_>
      <internalNodes>
        0 -1 29334 -556856864 -1872416063 860022110 633708189 -364576360
        -614734511 -628230325 4383270</internalNodes>
      <leafValues>
        -2.1949094533920288e-01 1.7076157033443451e-01</leafValues></_>
    <_>
      <internalNodes>
        0 -1 2142 446604265 1374455768 34822 1359976634 1385202317
        813730348 629772302 1641157093</internalNodes>
      <leafValues>
        -2.0963664352893829e-01 1.7499372363090515e-01</leafValues></_>
    <_>
      <internalNodes>
        0 -1 1357 601409210 -104275010 1699840132 1470620682 -1463725401
        1354598659 1242830387 -940182538</internalNodes>
      <leafValues>
        -1.8865388631820679e-01 1.8433862924575806e-01</leafValues></_>
    <_>
      <internalNodes>
        0 -1 20060 -2018541016 -150776614 311365782 427822699 1709551544
        -1686218238 1521810764 488186162</internalNodes>
      <leafValues>
        -2.2021819651126862e-01 1.6940565407276154e-01</leafValues></_>
    <_>
      <internalNodes>
        0 -1 16369 -127143526 2066627883 -404300799 1256635931 741160134
        -328322598 460688847 -743975638</internalNodes>
      <leafValues>
        -1.4612989127635956e-01 2.4959060549736023e-01</leafValues></_>
    <_>
      <internalNodes>
        0 -1 14360 -335831172 -29650963 -554508616 2057497739 259999737
        639028551 -836994086 -392181708</internalNodes>
      <leafValues>
        -1.8506883084774017e-01 2.0685367286205292e-01</leafValues></_>
    <_>
      <internalNodes>
        0 -1 5606 -1939046620 -1739184568 -1777178443 1818896937
        -905110023 -1992478434 330597413 997750280</internalNodes>
      <leafValues>
        -2.6745581626892090e-01 1.5562891960144043e-01</leafValues></_>
    <_>
      <internalNodes>
        0 -1 23396 2049953697 2133986336 1660926655 -1667274252
        -1082872869 -168812859 1593091883 -632830828</internalNodes>
      <leafValues>
        -1.5843102335929871e-01 2.4568837881088257e-01</leafValues></_>
    <_>
      <internalNodes>
        0 -1 34249 828185610 1881791335 -746195668 -537286453 -657503440
        -1362925559 1670300428 -1728526357</internalNodes>
      <leafValues>
        -2.3084983229637146e-01 1.6753780841827393e-01</leafValues></_>
    <_>
      <internalNodes>
        0 -1 13951 -545659757 -569393 1015014986 -72929485 1300055983
        1715103398 1272328045 -473825281</internalNodes>
      <leafValues>
        -1.2483395636081696e-01 3.1808286905288696e-01</leafValues></_>
    <_>
      <internalNodes>
        0 -1 28807 -135601242 -1060488475 -17411195 -1853620890
        -688750162 271867759 -1159064533 -940442483</internalNodes>
      <leafValues>
        -1.7803913354873657e-01 2.3164394497871399e-01</leafValues></_>
    <_>
      <internalNodes>
        0 -1 25713 -25034829 358953889 762276711 1303898970 -101822561
        -1410040113 -120876294 -11796545</internalNodes>
      <leafValues>
        -7.6220571994781494e-02 4.3650856614112854e-01</leafValues></_>
    <_>
      <internalNodes>
        0 -1 9062 1115190763 2012691583 946810904 -1880289557 -168256449
        626510278 1450154824 -695660675</internalNodes>
      <leafValues>
        -1.9231382012367249e-01 2.1439798176288605e-01</leafValues></_>
    <_>
      <internalNodes>
        0 -1 29092 -674759597 -35180736 1063773101 261956222 -1414987841
        -308628951 -855716997 -77203561</internalNodes>
      <leafValues>
        -1.1942910403013229e-01 3.7285816669464111e-01</leafValues></_>
    <_>
      <internalNodes>
        0 -1 3008 68207140 786516645 -1945696284 648686143 716583645
        1045898548 825852654 1177939963</internalNodes>
      <leafValues>
        -3.1595531105995178e-01 1.4518555998802185e-01</leafValues></_>
    <_>
      <internalNodes>
        0 -1 20889 -913488620 1659119110 264282898 1059357000 202204043
        -248962426 938767367 364474535</internalNodes>
      <leafValues>
        -2.8405210375785828e-01 1.3622479140758514e-01</leafValues></_>
    <_>
      <internalNodes>
        0 -1 32561 1395309864 307058134 -1006316307 -1053306048
        -393499729 -1708742884 1221054824 474490562</internalNodes>
      <leafValues>
        -2.2771447896957397e-01 1.8673241138458252e-01</leafValues></_>
    <_>
      <internalNodes>
        0 -1 16633 2065819638 -795896690 310551701 -2014403958
        -900969634 -518434422 2002678397 232389400</internalNodes>
      <leafValues>
        -2.0711885392665863e-01 1.9917757809162140e-01</leafValues></_>
    <_>
      <internalNodes>
        0 -1 30883 1870809620 -1061637878 1076003239 610851156
        -500723195 20382150 -777396184 1126999329</internalNodes>
      <leafValues>
        -3.0347409844398499e-01 1.3873417675495148e-01</leafValues></_>
    <_>
      <internalNodes>
        0 -1 10596 -1741706022 2118760039 -998312258 1148294367
        1863112077 -2025177378 1857041340 -371264994</internalNodes>
      <leafValues>
        -1.8360461294651031e-01 2.3668333888053894e-01</leafValues></_>
    <_>
      <internalNodes>
        0 -1 5407 -1469895160 1151994311 -1272160156 110891089
        -1295054508 69102475 1173108516 1115284294</internalNodes>
      <leafValues>
        -4.1112855076789856e-01 1.1155506968498230e-01</leafValues></_>
    <_>
      <internalNodes>
        0 -1 12893 1230816337 1143745245 -669138543 1952861256
        -1546972372 -499027913 -128753588 956313424</internalNodes>
      <leafValues>
        -2.9176869988441467e-01 1.3698831200599670e-01</leafValues></_>
    <_>
      <internalNodes>
        0 -1 33392 505086464 813991426 -2138946202 5831520 413038408
        37962704 -538951680 496594978</internalNodes>
      <leafValues>
        -3.8068643212318420e-01 1.1352876573801041e-01</leafValues></_>
    <_>
      <internalNodes>
        0 -1 12744 399390749 -1183244252 -1574828879 -2119763966
        796170396 222405201 432101411 432824614</internalNodes>
      <leafValues>
        -2.6841613650321960e-01 1.6072358191013336e-01</leafValues></_>
    <_>
      <internalNodes>
        0 -1 13610 372805348 -1407088329 -1068205756 894872966
        1216103940 -1733037130 43393262 -2005027789</internalNodes>
      <leafValues>
        -2.4326978623867035e-01 1.8242830038070679e-01</leafValues></_>
    <_>
      <internalNodes>
        0 -1 31959 1945992063 2147351729 -1612794115 -72190211
        -151161108 -4064819 -1613499463 -269639723</internalNodes>
      <leafValues>
        -1.0533063858747482e-01 4.1625547409057617e-01</leafValues></_>
    <_>
      <internalNodes>
        0 -1 23557 995852855 1250656150 -679371419 -70724756 -360021081
        688369033 1751864138 -1840504396</internalNodes>
      <leafValues>
        -2.0547072589397430e-01 2.2155956923961639e-01</leafValues></_>
    <_>
      <internalNodes>
        0 -1 28093 1451013588 2017199136 540521791 1473773446 159336437
        -66403136 308629520 1176957447</internalNodes>
      <leafValues>
        -2.3297774791717529e-01 1.9163174927234650e-01</leafValues></_>
    <_>
      <internalNodes>
        0 -1 21963 -44446265 385511283 -907448289 -235426832 946079627
        1433796453 -940103425 -614997509</internalNodes>
      <leafValues>
        -1.2889364361763000e-01 3.5131245851516724e-01</leafValues></_>
    <_>
      <internalNodes>
        0 -1 29220 -2048379140 934867222 1964609424 1832891664
        -176761921 1818446069 -1655899032 1064632037</internalNodes>
      <leafValues>
        -2.2368191182613373e-01 2.0594857633113861e-01</leafValues></_></weakClassifiers></stage5>
</opencv_storage>
