<?xml version="1.0"?>
<opencv_storage>
<stage8>
  <maxWeakCount>34</maxWeakCount>
  <stageThreshold>-1.0508574247360229e+00</stageThreshold>
  <weakClassifiers>
    <_>
      <internalNodes>
        0 -1 32711 -134881281 -536891971 1861998493 -137732 -5316610
        -140299 -1078067281 -1073875459</internalNodes>
      <leafValues>
        -1.7712046205997467e-01 5.0000000000000000e-01</leafValues></_>
    <_>
      <internalNodes>
        0 -1 15 -1346187778 -1895773778 -1090588747 690359336 1731532762
        -50496329 1289461475 -872952137</internalNodes>
      <leafValues>
        -1.7304532229900360e-01 2.6300704479217529e-01</leafValues></_>
    <_>
      <internalNodes>
        0 -1 5634 503250109 -77969509 -70363149 -544769 -1073750552
        -67570691 -69419029 -4280353</internalNodes>
      <leafValues>
        -1.0740891098976135e-01 4.7258380055427551e-01</leafValues></_>
    <_>
      <internalNodes>
        0 -1 11782 -675305742 916395600 -300734156 -1254182758
        2095067529 36049582 287590997 -803810630</internalNodes>
      <leafValues>
        -1.9782482087612152e-01 1.7247352004051208e-01</leafValues></_>
    <_>
      <internalNodes>
        0 -1 34510 1547327825 143265324 1543771614 -1337714396
        1892455438 -332598480 1256651445 -2026554704</internalNodes>
      <leafValues>
        -2.2614112496376038e-01 1.4933654665946960e-01</leafValues></_>
    <_>
      <internalNodes>
        0 -1 13454 -526273740 819117718 929772694 548792045 1141522360
        -1442955367 603612216 1078040838</internalNodes>
      <leafValues>
        -1.7452232539653778e-01 2.1242386102676392e-01</leafValues></_>
    <_>
      <internalNodes>
        0 -1 32403 -313288452 -740310240 1209238006 902869833 343839226
        -594898333 1590772458 761634650</internalNodes>
      <leafValues>
        -2.2687919437885284e-01 1.5777489542961121e-01</leafValues></_>
    <_>
      <internalNodes>
        0 -1 32573 1205323199 -826324309 2028871410 -1842217438
        2036583687 -146736820 1778115739 -513024485</internalNodes>
      <leafValues>
        -9.2238090932369232e-02 3.0537265539169312e-01</leafValues></_>
    <_>
      <internalNodes>
        0 -1 2914 -505942161 -639310086 -1343139992 -1360352594
        -597375748 -38275842 -1158050579 -103029537</internalNodes>
      <leafValues>
        -1.3769921660423279e-01 2.7268731594085693e-01</leafValues></_>
    <_>
      <internalNodes>
        0 -1 18436 -483706917 -1321520203 587118035 -1645150461
        -296008228 -134448581 -179902629 -548691528</internalNodes>
      <leafValues>
        -1.3429011404514313e-01 2.9642161726951599e-01</leafValues></_>
    <_>
      <internalNodes>
        0 -1 25617 309186178 1156771681 -517995264 -1502706782
        1137201324 615770457 -254262796 1347502678</internalNodes>
      <leafValues>
        -2.9876112937927246e-01 1.2240501493215561e-01</leafValues></_>
    <_>
      <internalNodes>
        0 -1 10897 -89315009 1511285851 -822239681 -41378635 1744106421
        -1998673963 -1610680660 1808715003</internalNodes>
      <leafValues>
        -1.2300985306501389e-01 2.8813621401786804e-01</leafValues></_>
    <_>
      <internalNodes>
        0 -1 27564 -364740318 2091919936 472597596 2041804696
        -1082085108 43082274 1940147756 444184591</internalNodes>
      <leafValues>
        -2.6995643973350525e-01 1.3779449462890625e-01</leafValues></_>
    <_>
      <internalNodes>
        0 -1 25756 254197362 -1340141428 -644056401 -1525489535
        -487214428 783424036 583811464 1748262476</internalNodes>
      <leafValues>
        -2.6155713200569153e-01 1.6155892610549927e-01</leafValues></_>
    <_>
      <internalNodes>
        0 -1 16027 -1821474298 766049354 303695344 -987025571 1671718967
        -2036209450 1947783558 216628145</internalNodes>
      <leafValues>
        -2.6931726932525635e-01 1.3690371811389923e-01</leafValues></_>
    <_>
      <internalNodes>
        0 -1 9089 614992824 -1386205947 164262217 -2086926508 545293368
        -521164532 528681328 672138240</internalNodes>
      <leafValues>
        -4.3606057763099670e-01 1.0775851458311081e-01</leafValues></_>
    <_>
      <internalNodes>
        0 -1 714 -305901656 -1979340546 1220759439 1687044256 2085241892
        -323644992 -355298733 1869732839</internalNodes>
      <leafValues>
        -2.5170767307281494e-01 1.4966008067131042e-01</leafValues></_>
    <_>
      <internalNodes>
        0 -1 25189 -214963374 823921512 1802176828 52835743 512922607
        -292148108 -1359622823 -970639766</internalNodes>
      <leafValues>
        -1.9333377480506897e-01 2.0712836086750031e-01</leafValues></_>
    <_>
      <internalNodes>
        0 -1 7883 -1379033441 -1053011997 -1093224892 -1477198123
        2128370363 2020073315 1421104526 1993727475</internalNodes>
      <leafValues>
        -1.6595381498336792e-01 2.4267250299453735e-01</leafValues></_>
    <_>
      <internalNodes>
        0 -1 26260 2072309640 -453562782 -1359812814 1979004901
        -1896549027 812505567 82409851 -812681256</internalNodes>
      <leafValues>
        -1.6753734648227692e-01 2.3799797892570496e-01</leafValues></_>
    <_>
      <internalNodes>
        0 -1 8272 648467441 -180620511 -1749431331 -687940535
        -2040623109 169135542 -539497779 -349588274</internalNodes>
      <leafValues>
        -1.5734751522541046e-01 2.6562106609344482e-01</leafValues></_>
    <_>
      <internalNodes>
        0 -1 12413 1707306254 -1635228228 -1431829498 546281350
        -1300227758 1745160390 1712365892 1121362575</internalNodes>
      <leafValues>
        -3.7340679764747620e-01 1.1366833746433258e-01</leafValues></_>
    <_>
      <internalNodes>
        0 -1 4211 1234620851 -1619788801 -1477826923 1067971578
        -1929455957 -968466529 -403269873 -86556821</internalNodes>
      <leafValues>
        -1.2240989506244659e-01 3.3852899074554443e-01</leafValues></_>
    <_>
      <internalNodes>
        0 -1 17587 -218155021 1060369808 340048779 1036733684 1087100320
        1537734524 -403035074 -128063650</internalNodes>
      <leafValues>
        -1.4345647394657135e-01 2.9432937502861023e-01</leafValues></_>
    <_>
      <internalNodes>
        0 -1 1224 197232192 -443535168 26821806 -327757267 -259038746
        1089450145 -66577912 1920573988</internalNodes>
      <leafValues>
        -3.1869810819625854e-01 1.3332861661911011e-01</leafValues></_>
    <_>
      <internalNodes>
        0 -1 20499 1489185104 -1690801839 -1882553600 212370718
        -904714850 1080005731 701997272 701294354</internalNodes>
      <leafValues>
        -2.6464912295341492e-01 1.5818864107131958e-01</leafValues></_>
    <_>
      <internalNodes>
        0 -1 30037 791082980 -904572598 -859816908 369941634 -2103892304
        1635860485 1128283584 1254367984</internalNodes>
      <leafValues>
        -3.0739071965217590e-01 1.3861943781375885e-01</leafValues></_>
    <_>
      <internalNodes>
        0 -1 12376 -97921561 1473497311 317635411 524277303 -1879809057
        2145232068 -689404313 -206845479</internalNodes>
      <leafValues>
        -1.2283765524625778e-01 3.6354377865791321e-01</leafValues></_>
    <_>
      <internalNodes>
        0 -1 15016 -1649153187 1592599570 -331968911 -1214211474
        1152947887 424179443 -426264120 -890030898</internalNodes>
      <leafValues>
        -1.4635036885738373e-01 2.8289937973022461e-01</leafValues></_>
    <_>
      <internalNodes>
        0 -1 10406 1645218946 820170914 672579584 -1530325553 1300439380
        1258379638 -1481620140 72657202</internalNodes>
      <leafValues>
        -4.1817703843116760e-01 9.6277303993701935e-02</leafValues></_>
    <_>
      <internalNodes>
        0 -1 33839 1960690564 -1747579586 -1716745219 -1828044932
        -1082895005 -352356788 -1854083896 2133038829</internalNodes>
      <leafValues>
        -1.9139240682125092e-01 2.1458125114440918e-01</leafValues></_>
    <_>
      <internalNodes>
        0 -1 22258 -1161379073 -157335959 1689262967 -1049387043
        -537364289 461174142 -1391025217 -1622700610</internalNodes>
      <leafValues>
        -1.2670081853866577e-01 3.6042222380638123e-01</leafValues></_>
    <_>
      <internalNodes>
        0 -1 14208 1112616522 1186622438 151533889 -1756978538
        -246743036 1649167620 -2027856953 1275386432</internalNodes>
      <leafValues>
        -3.0167776346206665e-01 1.4727999269962311e-01</leafValues></_>
    <_>
      <internalNodes>
        0 -1 33429 1205630303 -887740235 -1300316590 -1830175348
        -1210154394 -2144010629 -2085218916 -728904070</internalNodes>
      <leafValues>
        -1.8955391645431519e-01 2.3083361983299255e-01</leafValues></_></weakClassifiers></stage8>
</opencv_storage>
