<?xml version="1.0"?>
<opencv_storage>
<stage11>
  <maxWeakCount>33</maxWeakCount>
  <stageThreshold>-9.7534906864166260e-01</stageThreshold>
  <weakClassifiers>
    <_>
      <internalNodes>
        0 -1 48 -2147029336 14828554 -1717925214 -1566260884 -1885608005
        -746751606 -107946561 -435748970</internalNodes>
      <leafValues>
        -3.8532534241676331e-01 5.5516183376312256e-02</leafValues></_>
    <_>
      <internalNodes>
        0 -1 2984 1872069604 1176293402 933152379 -294993682 -1118453411
        -609558340 -736476264 502948842</internalNodes>
      <leafValues>
        -2.4196419119834900e-01 1.4869429171085358e-01</leafValues></_>
    <_>
      <internalNodes>
        0 -1 10898 925228733 -134951039 1838984058 -1249052675
        -1846026243 -42446866 -1615507539 -67584001</internalNodes>
      <leafValues>
        -1.0535541176795959e-01 3.1938400864601135e-01</leafValues></_>
    <_>
      <internalNodes>
        0 -1 16 35947008 1957021005 -2007611318 -1398493486 -579439519
        -576091688 -1197360618 1007764892</internalNodes>
      <leafValues>
        -2.5843322277069092e-01 1.6792945563793182e-01</leafValues></_>
    <_>
      <internalNodes>
        0 -1 34526 -51900649 -1245805406 -1978306591 168356999
        -1582513281 -1680671564 -2006003543 -1426398632</internalNodes>
      <leafValues>
        -2.5398102402687073e-01 1.2151412665843964e-01</leafValues></_>
    <_>
      <internalNodes>
        0 -1 200 -1569750962 -1855184978 -926487476 157207485 1014443585
        -1153204744 -1267359819 1406210427</internalNodes>
      <leafValues>
        -1.4017350971698761e-01 2.3092295229434967e-01</leafValues></_>
    <_>
      <internalNodes>
        0 -1 26476 -745680390 -69833964 971956621 -106415327 -717226497
        -1963885146 -1102207509 -27000882</internalNodes>
      <leafValues>
        -1.2739305198192596e-01 3.2063338160514832e-01</leafValues></_>
    <_>
      <internalNodes>
        0 -1 19171 -348942342 -2035245234 783575858 1615099582 942721002
        -1616446477 763143260 -924330903</internalNodes>
      <leafValues>
        -1.6175591945648193e-01 2.1268197894096375e-01</leafValues></_>
    <_>
      <internalNodes>
        0 -1 128 -2141165568 -1436102706 471500577 1710524668
        -1741463212 -1259843079 -32214902 330574106</internalNodes>
      <leafValues>
        -2.8104802966117859e-01 1.3632653653621674e-01</leafValues></_>
    <_>
      <internalNodes>
        0 -1 34494 -1801085267 -1714641707 -1765011403 -769983224
        -288076328 993668114 -1012894753 -1809829552</internalNodes>
      <leafValues>
        -2.2684164345264435e-01 1.5048705041408539e-01</leafValues></_>
    <_>
      <internalNodes>
        0 -1 12135 -1278058313 1320733220 -1141505485 1245834877
        1249825914 1316605892 -1074501505 1527767070</internalNodes>
      <leafValues>
        -1.5274900197982788e-01 2.3166522383689880e-01</leafValues></_>
    <_>
      <internalNodes>
        0 -1 13658 -1878658062 1667731223 1656466513 -169232815
        1148832639 1582753726 403810300 -216270966</internalNodes>
      <leafValues>
        -1.3564579188823700e-01 2.6636648178100586e-01</leafValues></_>
    <_>
      <internalNodes>
        0 -1 3728 541248096 1825325238 648544809 1643656 1532495073
        982096516 612956492 545535320</internalNodes>
      <leafValues>
        -3.7911573052406311e-01 9.2234320938587189e-02</leafValues></_>
    <_>
      <internalNodes>
        0 -1 8791 -265255725 2114939847 -512476550 -1692551765
        -2068889354 -360813149 -573174530 994762539</internalNodes>
      <leafValues>
        -1.4823786914348602e-01 2.6112800836563110e-01</leafValues></_>
    <_>
      <internalNodes>
        0 -1 3002 1188620460 650527118 -1056392626 1156236065
        -1580918419 1078244544 1118613304 650025534</internalNodes>
      <leafValues>
        -4.1543418169021606e-01 7.6944462954998016e-02</leafValues></_>
    <_>
      <internalNodes>
        0 -1 24430 -766662606 -1136108468 1209503091 2091949075
        176182196 1808531592 839201106 127750227</internalNodes>
      <leafValues>
        -2.3562911152839661e-01 1.7662939429283142e-01</leafValues></_>
    <_>
      <internalNodes>
        0 -1 24055 2123009423 -275678831 -1611673436 -481252125
        326055882 -1663138056 598421534 -184097575</internalNodes>
      <leafValues>
        -1.5346929430961609e-01 2.5886932015419006e-01</leafValues></_>
    <_>
      <internalNodes>
        0 -1 32268 -433378814 -263154526 719787808 -532615612 -831041216
        304221281 153188800 94640176</internalNodes>
      <leafValues>
        -3.7895667552947998e-01 1.0161297768354416e-01</leafValues></_>
    <_>
      <internalNodes>
        0 -1 10753 1695607053 -1483463442 -989169579 1031685884
        -1553647530 2135099606 -1091727072 -1603234156</internalNodes>
      <leafValues>
        -2.6156583428382874e-01 1.4332698285579681e-01</leafValues></_>
    <_>
      <internalNodes>
        0 -1 16666 -1434486682 1807113606 269518403 234654424
        -1458610420 1550862513 666631023 1463939440</internalNodes>
      <leafValues>
        -2.4025017023086548e-01 1.6849225759506226e-01</leafValues></_>
    <_>
      <internalNodes>
        0 -1 33097 344197168 -141934135 429361246 -1458976736
        -1514077972 -16514259 906715229 304612352</internalNodes>
      <leafValues>
        -3.7740981578826904e-01 1.0902266949415207e-01</leafValues></_>
    <_>
      <internalNodes>
        0 -1 15377 -837016551 1157499265 272140982 122962760 -2026937516
        1379723541 -1053751097 1784665433</internalNodes>
      <leafValues>
        -2.6192250847816467e-01 1.4607413113117218e-01</leafValues></_>
    <_>
      <internalNodes>
        0 -1 7190 -1337085183 1547928146 1389305496 185398349 12245710
        2072699211 -1061511165 16835856</internalNodes>
      <leafValues>
        -2.5070029497146606e-01 1.6425722837448120e-01</leafValues></_>
    <_>
      <internalNodes>
        0 -1 33324 -905710801 -868564211 -1546194292 1011983019
        -151015996 196210258 2040926366 -1658957477</internalNodes>
      <leafValues>
        -1.6796980798244476e-01 2.4017609655857086e-01</leafValues></_>
    <_>
      <internalNodes>
        0 -1 26999 1866221698 873589993 -1583185728 1668475267
        -680380431 952732941 -95417128 -1696705342</internalNodes>
      <leafValues>
        -2.2495338320732117e-01 1.7808955907821655e-01</leafValues></_>
    <_>
      <internalNodes>
        0 -1 20097 1154563874 -502684218 -707057211 2125752910
        -988086240 404763671 -1449060460 876814430</internalNodes>
      <leafValues>
        -2.7826803922653198e-01 1.5004418790340424e-01</leafValues></_>
    <_>
      <internalNodes>
        0 -1 15046 1987049682 -1415020270 -499355271 -1624255830
        -175819860 84482381 1233342475 1418832352</internalNodes>
      <leafValues>
        -2.2182136774063110e-01 1.9680225849151611e-01</leafValues></_>
    <_>
      <internalNodes>
        0 -1 34590 -178478767 -965472700 274430672 -1256941305
        -2055152546 -61305615 -1399830365 733632196</internalNodes>
      <leafValues>
        -2.2749550640583038e-01 1.9162835180759430e-01</leafValues></_>
    <_>
      <internalNodes>
        0 -1 25148 -242159642 -650330319 318574321 560152567 1558701879
        -1645329550 1477033401 -1856380374</internalNodes>
      <leafValues>
        -1.5796104073524475e-01 2.6395478844642639e-01</leafValues></_>
    <_>
      <internalNodes>
        0 -1 0 708314112 1611532015 1654004456 136883436 -207160731
        1708161473 1567181428 492894000</internalNodes>
      <leafValues>
        -4.9917808175086975e-01 6.7475959658622742e-02</leafValues></_>
    <_>
      <internalNodes>
        0 -1 13515 1224580760 209723330 273298536 780601214 335631407
        -521272545 -34269535 506489754</internalNodes>
      <leafValues>
        -2.5355488061904907e-01 1.6475822031497955e-01</leafValues></_>
    <_>
      <internalNodes>
        0 -1 8351 1576939959 -892244565 1376520252 1002758055
        -1049178233 -740663437 167081865 -1345346705</internalNodes>
      <leafValues>
        -1.2321415543556213e-01 3.3243435621261597e-01</leafValues></_>
    <_>
      <internalNodes>
        0 -1 583 1110755082 -562538805 201659017 1622745148 -1994943560
        -1490471391 115040286 1950656980</internalNodes>
      <leafValues>
        -3.0614414811134338e-01 1.4346164464950562e-01</leafValues></_></weakClassifiers></stage11>
</opencv_storage>
