<?xml version="1.0"?>
<opencv_storage>
<stage6>
  <maxWeakCount>35</maxWeakCount>
  <stageThreshold>-9.0418058633804321e-01</stageThreshold>
  <weakClassifiers>
    <_>
      <internalNodes>
        0 -1 32711 -46399489 -10878983 -1614815233 -8538243 -1079189505
        -1180673 -742524417 -3</internalNodes>
      <leafValues>
        -1.6122448444366455e-01 6.6923075914382935e-01</leafValues></_>
    <_>
      <internalNodes>
        0 -1 5634 -1108410369 -147136609 -35687457 -539033609 -671096855
        -34276355 -100810753 -1245185</internalNodes>
      <leafValues>
        -1.2000415474176407e-01 4.6142369508743286e-01</leafValues></_>
    <_>
      <internalNodes>
        0 -1 32711 660868128 71993230 33719840 14717622 1970106880
        82991280 998662656 6304066</internalNodes>
      <leafValues>
        -7.8383028507232666e-01 6.0097526758909225e-02</leafValues></_>
    <_>
      <internalNodes>
        0 -1 32711 -54789153 -67240711 -32801 -10490515 -1078554625
        -9570433 -671220225 -6299987</internalNodes>
      <leafValues>
        -5.3184572607278824e-04 7.7549695968627930e-01</leafValues></_>
    <_>
      <internalNodes>
        0 -1 27684 -299393311 713282902 1193334774 -767853168
        -1261778879 -293626062 -2000289962 -1402633185</internalNodes>
      <leafValues>
        -2.2559945285320282e-01 1.5500718355178833e-01</leafValues></_>
    <_>
      <internalNodes>
        0 -1 30080 1925467985 -244056375 -2504271 1999101755 1714855759
        -300568788 -33829122 -50735446</internalNodes>
      <leafValues>
        -9.8482169210910797e-02 3.1977900862693787e-01</leafValues></_>
    <_>
      <internalNodes>
        0 -1 23978 -689588652 -1787106632 497309156 50845878 -1414547288
        301310472 -1072567828 1372309079</internalNodes>
      <leafValues>
        -2.0928518474102020e-01 1.8544650077819824e-01</leafValues></_>
    <_>
      <internalNodes>
        0 -1 2834 -1541369987 1827991201 -1359438257 1726373466
        1157398614 -4927529 -1035193851 -807440590</internalNodes>
      <leafValues>
        -1.7906683683395386e-01 2.1228243410587311e-01</leafValues></_>
    <_>
      <internalNodes>
        0 -1 27033 1144000543 -1440022786 -235868613 1658848766
        -722430972 -1087972003 -795832684 -1460582156</internalNodes>
      <leafValues>
        -1.7980705201625824e-01 2.1147184073925018e-01</leafValues></_>
    <_>
      <internalNodes>
        0 -1 26300 -669332472 15658288 -515053798 -2111252216 -624944095
        10704339 -2014577727 376083259</internalNodes>
      <leafValues>
        -3.2974213361740112e-01 9.1004855930805206e-02</leafValues></_>
    <_>
      <internalNodes>
        0 -1 15681 1469261326 1465652868 -1325254859 -1756314549
        420685992 134571697 1383928168 1096472450</internalNodes>
      <leafValues>
        -2.0371143519878387e-01 1.8940302729606628e-01</leafValues></_>
    <_>
      <internalNodes>
        0 -1 31709 -128648471 -593397153 -126156809 1004953835
        -1913575552 -1133222597 -1517256780 -102575378</internalNodes>
      <leafValues>
        -1.6884697973728180e-01 2.3971846699714661e-01</leafValues></_>
    <_>
      <internalNodes>
        0 -1 21049 1470865073 -240816844 23379383 1917985360 208667636
        -322242595 -338247894 -85882941</internalNodes>
      <leafValues>
        -1.1813012510538101e-01 2.9491186141967773e-01</leafValues></_>
    <_>
      <internalNodes>
        0 -1 16470 1506006483 -673207395 927052447 -1140852913
        -303724873 -777586940 2032113547 -101713941</internalNodes>
      <leafValues>
        -9.5585815608501434e-02 4.3695577979087830e-01</leafValues></_>
    <_>
      <internalNodes>
        0 -1 128 140526113 1215234401 673949292 -1939824492 -627713455
        -1395565157 -78223131 724920603</internalNodes>
      <leafValues>
        -3.1326544284820557e-01 1.1972095817327499e-01</leafValues></_>
    <_>
      <internalNodes>
        0 -1 12560 -1150627881 1483712422 -235513989 909496837
        1316364263 -824680730 813168439 -302871533</internalNodes>
      <leafValues>
        -1.4774915575981140e-01 2.7370822429656982e-01</leafValues></_>
    <_>
      <internalNodes>
        0 -1 29807 1522960842 -1928878560 1076855056 -2047831614
        334408129 429558181 1478888076 1130525258</internalNodes>
      <leafValues>
        -2.4702547490596771e-01 1.5920823812484741e-01</leafValues></_>
    <_>
      <internalNodes>
        0 -1 27778 -351670729 532163744 -1413894185 -1185326063
        -868940491 -1661567804 1546697683 -2064646867</internalNodes>
      <leafValues>
        -1.5359807014465332e-01 2.6896250247955322e-01</leafValues></_>
    <_>
      <internalNodes>
        0 -1 34006 1902501721 479227454 2113564663 -1301284796
        -331909619 -1087932553 -1334708995 -103955805</internalNodes>
      <leafValues>
        -1.2870520353317261e-01 3.1549793481826782e-01</leafValues></_>
    <_>
      <internalNodes>
        0 -1 12242 470641802 1616433600 412144160 249857328 854123392
        1186712526 80065102 2084893297</internalNodes>
      <leafValues>
        -2.9824212193489075e-01 1.3711735606193542e-01</leafValues></_>
    <_>
      <internalNodes>
        0 -1 2398 -2105611203 -151362868 -1835605987 -393992636
        1141777565 -339001013 1763855176 1815743152</internalNodes>
      <leafValues>
        -2.8264281153678894e-01 1.4543737471103668e-01</leafValues></_>
    <_>
      <internalNodes>
        0 -1 14862 272628479 857688625 -269679659 -1956272155
        -1856686086 -6987843 228032411 -68288593</internalNodes>
      <leafValues>
        -1.1599640548229218e-01 3.9680325984954834e-01</leafValues></_>
    <_>
      <internalNodes>
        0 -1 28954 1347061778 1014484589 -1168252072 1051156702
        -1503792944 -1252445095 -2080038089 1812918374</internalNodes>
      <leafValues>
        -2.2455006837844849e-01 1.9234453141689301e-01</leafValues></_>
    <_>
      <internalNodes>
        0 -1 14805 315605028 -2146128606 366131232 1079067502 1416700457
        1293725478 1262878512 1079269908</internalNodes>
      <leafValues>
        -4.0295505523681641e-01 1.1540369689464569e-01</leafValues></_>
    <_>
      <internalNodes>
        0 -1 26140 1221363680 -1554921032 -497002742 -783249196
        -1244117820 1977006222 -1975624754 364809663</internalNodes>
      <leafValues>
        -2.4316535890102386e-01 1.7813311517238617e-01</leafValues></_>
    <_>
      <internalNodes>
        0 -1 22583 1743269478 2054117160 1158546656 -1954428898
        696061767 1762672687 -243697648 67875314</internalNodes>
      <leafValues>
        -3.2687619328498840e-01 1.2765994668006897e-01</leafValues></_>
    <_>
      <internalNodes>
        0 -1 488 -966997011 -334697029 -67391834 -291198219 -563871519
        -1603486553 -369100197 -1686265833</internalNodes>
      <leafValues>
        -1.9423180818557739e-01 2.2305102646350861e-01</leafValues></_>
    <_>
      <internalNodes>
        0 -1 22144 -1197238155 -1173373016 1861696307 -76351924
        1905338847 -570458638 1686040730 -1768494059</internalNodes>
      <leafValues>
        -1.7966459691524506e-01 2.4781014025211334e-01</leafValues></_>
    <_>
      <internalNodes>
        0 -1 20149 1481343634 831180309 1497051792 1020224188 -729732712
        74428451 1208290202 1463924224</internalNodes>
      <leafValues>
        -2.5937306880950928e-01 1.7366704344749451e-01</leafValues></_>
    <_>
      <internalNodes>
        0 -1 12157 -512201861 1112121121 -1619091425 2045093190
        -647774467 -564573688 1589619131 -67897667</internalNodes>
      <leafValues>
        -1.2412033230066299e-01 3.6891517043113708e-01</leafValues></_>
    <_>
      <internalNodes>
        0 -1 25825 -817906030 1926994694 -413355852 -1296676641
        2058893984 -787344218 1565561616 334469332</internalNodes>
      <leafValues>
        -2.6935586333274841e-01 1.7140820622444153e-01</leafValues></_>
    <_>
      <internalNodes>
        0 -1 18725 1938859476 1387557289 291171492 -29055342 -431062211
        122790048 1900128907 955025156</internalNodes>
      <leafValues>
        -2.7199539542198181e-01 1.8482916057109833e-01</leafValues></_>
    <_>
      <internalNodes>
        0 -1 34216 118429733 -1146693137 -889254918 -111069601
        1476035358 -312611254 1957074587 -37879813</internalNodes>
      <leafValues>
        -1.8131321668624878e-01 2.5433382391929626e-01</leafValues></_>
    <_>
      <internalNodes>
        0 -1 31835 -386970019 1577692615 1706933854 -1838011032
        -1485155613 -1181845505 -633242974 -1128825561</internalNodes>
      <leafValues>
        -1.7893850803375244e-01 2.6315653324127197e-01</leafValues></_>
    <_>
      <internalNodes>
        0 -1 24280 1533052212 2094083075 -1689624258 1632033795
        591308561 850330001 -1311387574 915273953</internalNodes>
      <leafValues>
        -2.4421544373035431e-01 1.9169044494628906e-01</leafValues></_></weakClassifiers></stage6>
</opencv_storage>
