<?xml version="1.0"?>
<opencv_storage>
<stage3>
  <maxWeakCount>34</maxWeakCount>
  <stageThreshold>-1.0339601039886475e+00</stageThreshold>
  <weakClassifiers>
    <_>
      <internalNodes>
        0 -1 2914 -421073409 2121029171 -835697363 -826103060 -588195655
        -275610401 -68565831 -805517064</internalNodes>
      <leafValues>
        -2.7826595306396484e-01 1.1721366643905640e-01</leafValues></_>
    <_>
      <internalNodes>
        0 -1 0 35653128 -496049017 545059028 1076537293 1739062479
        129508091 -575713697 1570104943</internalNodes>
      <leafValues>
        -3.1578370928764343e-01 1.0458680987358093e-01</leafValues></_>
    <_>
      <internalNodes>
        0 -1 21147 1320125540 707421734 138586816 539130754 602343232
        910611488 641810752 1685194765</internalNodes>
      <leafValues>
        -4.3556985259056091e-01 7.4132256209850311e-02</leafValues></_>
    <_>
      <internalNodes>
        0 -1 15592 303564564 528232646 134438 -1109464506 410125900
        -1995212742 1352880832 1074312328</internalNodes>
      <leafValues>
        -2.6433944702148438e-01 1.5339918434619904e-01</leafValues></_>
    <_>
      <internalNodes>
        0 -1 17167 1430910191 869911220 1986974804 -1551679637
        -1499187624 2005665711 265348971 791670382</internalNodes>
      <leafValues>
        -1.6174356639385223e-01 2.1943409740924835e-01</leafValues></_>
    <_>
      <internalNodes>
        0 -1 15982 -597629590 -1869553216 -1599011404 492421605
        1284993037 186420071 1917999307 2102914647</internalNodes>
      <leafValues>
        -2.1018843352794647e-01 1.5545403957366943e-01</leafValues></_>
    <_>
      <internalNodes>
        0 -1 31206 -87966211 -42509333 -81367841 -571539827 -840368135
        -1112249873 -272834595 -4603908</internalNodes>
      <leafValues>
        -9.3749187886714935e-02 3.9718252420425415e-01</leafValues></_>
    <_>
      <internalNodes>
        0 -1 5633 -1765992099 -7809476 -3293256 392478467 -151912844
        -1703316613 -1971903320 1943843710</internalNodes>
      <leafValues>
        -1.7562034726142883e-01 2.1413345634937286e-01</leafValues></_>
    <_>
      <internalNodes>
        0 -1 24352 -547386373 -710148588 1860878232 -1819032057
        1227281084 -927307909 1195831498 -650383489</internalNodes>
      <leafValues>
        -9.8194792866706848e-02 3.6482080817222595e-01</leafValues></_>
    <_>
      <internalNodes>
        0 -1 4938 1937236390 1138144298 -1332717266 2134379230 299905709
        1389037568 805870442 -482484399</internalNodes>
      <leafValues>
        -2.2356028854846954e-01 1.6029511392116547e-01</leafValues></_>
    <_>
      <internalNodes>
        0 -1 25918 1366991066 1666306182 -140948840 542396029 820383900
        -242695086 -1038495089 1206066798</internalNodes>
      <leafValues>
        -1.9322463870048523e-01 1.9692781567573547e-01</leafValues></_>
    <_>
      <internalNodes>
        0 -1 31493 1892633700 -660576762 -390444750 563854473 1214528612
        610894214 1619364796 475411278</internalNodes>
      <leafValues>
        -2.6607081294059753e-01 1.3551175594329834e-01</leafValues></_>
    <_>
      <internalNodes>
        0 -1 28404 -850011151 -1149600310 1073232881 -1093162067
        720631710 588314612 -1533313618 -203689885</internalNodes>
      <leafValues>
        -1.2355962395668030e-01 3.0381911993026733e-01</leafValues></_>
    <_>
      <internalNodes>
        0 -1 21375 1854907246 42471924 1219541088 -1474584370 -234743711
        1091580439 -2032872640 1203795325</internalNodes>
      <leafValues>
        -3.8374045491218567e-01 1.1124428361654282e-01</leafValues></_>
    <_>
      <internalNodes>
        0 -1 22551 -924851209 1399476043 -668234219 1033654242
        -624089428 -984190171 -1669519460 307074467</internalNodes>
      <leafValues>
        -1.8920512497425079e-01 2.0297782123088837e-01</leafValues></_>
    <_>
      <internalNodes>
        0 -1 20760 -1911993416 1138661990 1067427499 1063399199
        -1759744027 -1108708264 -1901037717 -645466613</internalNodes>
      <leafValues>
        -1.7626723647117615e-01 2.1344608068466187e-01</leafValues></_>
    <_>
      <internalNodes>
        0 -1 4692 465400487 1615781752 232831915 -93504485 -1354818622
        308619630 1592307234 1014748222</internalNodes>
      <leafValues>
        -1.9466051459312439e-01 2.0065663754940033e-01</leafValues></_>
    <_>
      <internalNodes>
        0 -1 30522 -183156517 1896385335 553071699 221699732 -353934901
        -848074890 -43230652 -265109270</internalNodes>
      <leafValues>
        -1.7294779419898987e-01 2.3462153971195221e-01</leafValues></_>
    <_>
      <internalNodes>
        0 -1 25042 1295145680 407513315 1006624107 1171529882
        -2127719995 -1167796738 1956031532 -173939881</internalNodes>
      <leafValues>
        -1.8790027499198914e-01 2.1402798593044281e-01</leafValues></_>
    <_>
      <internalNodes>
        0 -1 25480 -294474938 2077704396 -1721578528 823316996
        1183045934 605400361 -1545523208 -520752494</internalNodes>
      <leafValues>
        -2.1700768172740936e-01 1.8535970151424408e-01</leafValues></_>
    <_>
      <internalNodes>
        0 -1 22446 398966822 1729942370 1358135668 1344987401
        -1708028947 -1976728352 -802463172 1547013622</internalNodes>
      <leafValues>
        -2.2257745265960693e-01 1.8294604122638702e-01</leafValues></_>
    <_>
      <internalNodes>
        0 -1 27820 956325367 1194474788 406220785 -206543341 -1269734923
        -21570012 -34354456 533797858</internalNodes>
      <leafValues>
        -1.8268729746341705e-01 2.2606150805950165e-01</leafValues></_>
    <_>
      <internalNodes>
        0 -1 1425 -1372681888 2115858435 938580329 -935323318 -589148737
        159393819 -927874859 -1771177404</internalNodes>
      <leafValues>
        -2.2371035814285278e-01 1.8103869259357452e-01</leafValues></_>
    <_>
      <internalNodes>
        0 -1 12290 -661273133 2033168333 1624889302 902806164 -151013749
        1163353911 -693099197 -162159686</internalNodes>
      <leafValues>
        -1.5793333947658539e-01 2.6813927292823792e-01</leafValues></_>
    <_>
      <internalNodes>
        0 -1 7687 553232184 -1866788101 -1090237695 786301233 1292475163
        -630689776 719276034 139949780</internalNodes>
      <leafValues>
        -2.7515918016433716e-01 1.4828352630138397e-01</leafValues></_>
    <_>
      <internalNodes>
        0 -1 27477 1106506741 -1221968142 -1145198935 -505295625
        -1882957774 -156176595 334349542 -25180951</internalNodes>
      <leafValues>
        -1.3479542732238770e-01 3.1012222170829773e-01</leafValues></_>
    <_>
      <internalNodes>
        0 -1 17311 1371798270 -1045371296 -1282319221 1006108541
        651053255 1918151761 1095973658 -578853305</internalNodes>
      <leafValues>
        -1.6805641353130341e-01 2.5797227025032043e-01</leafValues></_>
    <_>
      <internalNodes>
        0 -1 29487 1997437880 -631316022 -129706877 1133562242
        1129296098 -1284551200 1407599064 790701810</internalNodes>
      <leafValues>
        -2.0433428883552551e-01 2.1068030595779419e-01</leafValues></_>
    <_>
      <internalNodes>
        0 -1 31144 -2040991819 124682130 -1975702275 -508325993
        -160959049 -1883619738 555388600 -547311582</internalNodes>
      <leafValues>
        -1.9363088905811310e-01 2.2616176307201385e-01</leafValues></_>
    <_>
      <internalNodes>
        0 -1 34513 -371904208 1719855108 -444353142 132164113
        -2003924435 -1617321802 -1894254306 -1661910264</internalNodes>
      <leafValues>
        -2.3951059579849243e-01 1.8854801356792450e-01</leafValues></_>
    <_>
      <internalNodes>
        0 -1 17408 383995402 -2014519197 -2130558344 1153504839
        1805910117 1292140544 1084788260 273964818</internalNodes>
      <leafValues>
        -4.1181829571723938e-01 9.3495793640613556e-02</leafValues></_>
    <_>
      <internalNodes>
        0 -1 18445 -208940486 305917588 -1348296897 1059118357
        -696800104 366217039 752819516 -214475109</internalNodes>
      <leafValues>
        -1.5176409482955933e-01 2.8783521056175232e-01</leafValues></_>
    <_>
      <internalNodes>
        0 -1 26683 581990961 -1519646221 -639630358 -1828145611
        -2101335434 -276314712 -1600877949 1215432789</internalNodes>
      <leafValues>
        -2.8812423348426819e-01 1.5101796388626099e-01</leafValues></_>
    <_>
      <internalNodes>
        0 -1 19227 1611040902 2059991018 836638058 846833682 -1740299774
        1482302012 -161292124 1875635734</internalNodes>
      <leafValues>
        -2.7238878607749939e-01 1.6268724203109741e-01</leafValues></_></weakClassifiers></stage3>
</opencv_storage>
